<?xml version="1.0"?>
<opencv_storage>
<cascade>
  <stageType>BOOST</stageType>
  <featureType>HAAR</featureType>
  <height>24</height>
  <width>24</width>
  <stageParams>
    <boostType>GAB</boostType>
    <minHitRate>9.9500000476837158e-01</minHitRate>
    <maxFalseAlarm>5.0000000000000000e-01</maxFalseAlarm>
    <weightTrimRate>9.4999999999999996e-01</weightTrimRate>
    <maxDepth>1</maxDepth>
    <maxWeakCount>100</maxWeakCount></stageParams>
  <featureParams>
    <maxCatCount>0</maxCatCount>
    <featSize>1</featSize>
    <mode>BASIC</mode></featureParams>
  <stageNum>2</stageNum>
  <stages>
    <!-- stage 0 -->
    <_>
      <maxWeakCount>3</maxWeakCount>
      <stageThreshold>-1.1139910221099854e+00</stageThreshold>
      <weakClassifiers>
        <_>
          <internalNodes>
            0 -1 0 -2.3447363078594208e-01</internalNodes>
          <leafValues>
            8.7096774578094482e-01 -9.9043059349060059e-01</leafValues></_>
        <_>
          <internalNodes>
            0 -1 1 -1.2000119686126709e-01</internalNodes>
          <leafValues>
            9.3856167793273926e-01 -9.2660510540008545e-01</leafValues></_>
        <_>
          <internalNodes>
            0 -1 3 1.2269721366465092e-02</internalNodes>
          <leafValues>
            -9.7971302270889282e-01 8.0304467678070068e-01</leafValues></_></weakClassifiers></_>
    <!-- stage 1 -->
    <_>
      <maxWeakCount>1</maxWeakCount>
      <stageThreshold>1.</stageThreshold>
      <weakClassifiers>
        <_>
          <internalNodes>
            0 -1 2 -5.9792757034301758e-02</internalNodes>
          <leafValues>
            -1. 1.</leafValues></_></weakClassifiers></_></stages>
  <features>
    <_>
      <rects>
        <_>
          0 2 24 17 -1.</_>
        <_>
          8 2 8 17 3.</_></rects>
      <tilted>0</tilted></_>
    <_>
      <rects>
        <_>
          0 11 24 5 -1.</_>
        <_>
          8 11 8 5 3.</_></rects>
      <tilted>0</tilted></_>
    <_>
      <rects>
        <_>
          3 12 17 12 -1.</_>
        <_>
          3 18 17 6 2.</_></rects>
      <tilted>0</tilted></_>
    <_>
      <rects>
        <_>
          14 13 8 3 -1.</_>
        <_>
          18 13 4 3 2.</_></rects>
      <tilted>0</tilted></_></features></cascade>
</opencv_storage>
